<?xml version="1.0"?>
<opencv_storage>
<output type_id="opencv-haar-classifier">
  <size>
    24 24</size>
  <stages>
    <_>
      <trees>
        <_>
          <_>
            <feature>
              <rects>
                <_>
                  20 18 4 5 -1.</_>
                <_>
                  22 18 2 5 2.</_></rects>
              <tilted>0</tilted></feature>
            <threshold>4.6275830827653408e-003</threshold>
            <left_val>-0.3601197898387909</left_val>
            <right_node>1</right_node></_>
          <_>
            <feature>
              <rects>
                <_>
                  0 19 6 5 -1.</_>
                <_>
                  3 19 3 5 2.</_></rects>
              <tilted>0</tilted></feature>
            <threshold>-9.5995527226477861e-004</threshold>
            <left_val>0.7635930180549622</left_val>
            <right_val>-0.5203573703765869</right_val></_></_>
        <_>
          <_>
            <feature>
              <rects>
                <_>
                  1 22 23 2 -1.</_>
                <_>
                  1 23 23 1 2.</_></rects>
              <tilted>0</tilted></feature>
            <threshold>1.9375489791855216e-003</threshold>
            <left_node>1</left_node>
            <right_val>0.4356342852115631</right_val></_>
          <_>
            <feature>
              <rects>
                <_>
                  2 12 18 12 -1.</_>
                <_>
                  2 18 18 6 2.</_></rects>
              <tilted>0</tilted></feature>
            <threshold>0.1098657026886940</threshold>
            <left_val>-0.5232735872268677</left_val>
            <right_val>0.4596971869468689</right_val></_></_>
        <_>
          <_>
            <feature>
              <rects>
                <_>
                  2 11 18 10 -1.</_>
                <_>
                  2 16 18 5 2.</_></rects>
              <tilted>0</tilted></feature>
            <threshold>-0.1367596983909607</threshold>
            <left_val>0.5240231752395630</left_val>
            <right_node>1</right_node></_>
          <_>
            <feature>
              <rects>
                <_>
                  3 7 18 8 -1.</_>
                <_>
                  3 11 18 4 2.</_></rects>
              <tilted>0</tilted></feature>
            <threshold>-0.0872035026550293</threshold>
            <left_val>0.3386799991130829</left_val>
            <right_val>-0.4282371997833252</right_val></_></_>
        <_>
          <_>
            <feature>
              <rects>
                <_>
                  16 23 4 1 -1.</_>
                <_>
                  18 23 2 1 2.</_></rects>
              <tilted>0</tilted></feature>
            <threshold>-5.7608791394159198e-004</threshold>
            <left_val>-0.5973200798034668</left_val>
            <right_node>1</right_node></_>
          <_>
            <feature>
              <rects>
                <_>
                  0 1 24 6 -1.</_>
                <_>
                  6 1 12 6 2.</_></rects>
              <tilted>0</tilted></feature>
            <threshold>0.0366617999970913</threshold>
            <left_val>-0.0854137763381004</left_val>
            <right_val>0.5159876942634583</right_val></_></_>
        <_>
          <_>
            <feature>
              <rects>
                <_>
                  0 8 4 8 -1.</_>
                <_>
                  1 8 2 8 2.</_></rects>
              <tilted>0</tilted></feature>
            <threshold>-3.0143500771373510e-003</threshold>
            <left_val>0.4282783865928650</left_val>
            <right_node>1</right_node></_>
          <_>
            <feature>
              <rects>
                <_>
                  2 6 3 12 -1.</_>
                <_>
                  3 6 1 12 3.</_></rects>
              <tilted>0</tilted></feature>
            <threshold>-3.7686768919229507e-003</threshold>
            <left_val>0.3525545001029968</left_val>
            <right_val>-0.3933978080749512</right_val></_></_>
        <_>
          <_>
            <feature>
              <rects>
                <_>
                  4 3 14 3 -1.</_>
                <_>
                  4 4 14 1 3.</_></rects>
              <tilted>0</tilted></feature>
            <threshold>-0.0102977296337485</threshold>
            <left_val>0.5843253135681152</left_val>
            <right_node>1</right_node></_>
          <_>
            <feature>
              <rects>
                <_>
                  8 2 10 3 -1.</_>
                <_>
                  8 3 10 1 3.</_></rects>
              <tilted>0</tilted></feature>
            <threshold>-6.4915288239717484e-003</threshold>
            <left_val>0.4574019014835358</left_val>
            <right_val>-0.2778038978576660</right_val></_></_>
        <_>
          <_>
            <feature>
              <rects>
                <_>
                  16 23 6 1 -1.</_>
                <_>
                  18 23 2 1 3.</_></rects>
              <tilted>0</tilted></feature>
            <threshold>5.9412198606878519e-004</threshold>
            <left_node>1</left_node>
            <right_val>-0.4311384856700897</right_val></_>
          <_>
            <feature>
              <rects>
                <_>
                  21 8 3 9 -1.</_>
                <_>
                  22 8 1 9 3.</_></rects>
              <tilted>0</tilted></feature>
            <threshold>-2.2138119675219059e-003</threshold>
            <left_val>0.5492538213729858</left_val>
            <right_val>-0.0116540202870965</right_val></_></_>
        <_>
          <_>
            <feature>
              <rects>
                <_>
                  3 23 6 1 -1.</_>
                <_>
                  6 23 3 1 2.</_></rects>
              <tilted>0</tilted></feature>
            <threshold>1.0100320214405656e-003</threshold>
            <left_node>1</left_node>
            <right_val>-0.5058674216270447</right_val></_>
          <_>
            <feature>
              <rects>
                <_>
                  0 23 9 1 -1.</_>
                <_>
                  3 23 3 1 3.</_></rects>
              <tilted>0</tilted></feature>
            <threshold>6.6116231027990580e-004</threshold>
            <left_val>0.3002975881099701</left_val>
            <right_val>-0.2771328091621399</right_val></_></_>
        <_>
          <_>
            <feature>
              <rects>
                <_>
                  3 18 17 6 -1.</_>
                <_>
                  3 21 17 3 2.</_></rects>
              <tilted>0</tilted></feature>
            <threshold>0.0559487305581570</threshold>
            <left_node>1</left_node>
            <right_val>0.4521453976631165</right_val></_>
          <_>
            <feature>
              <rects>
                <_>
                  3 11 13 12 -1.</_>
                <_>
                  3 15 13 4 3.</_></rects>
              <tilted>0</tilted></feature>
            <threshold>0.0968502312898636</threshold>
            <left_val>-0.3074449896812439</left_val>
            <right_val>0.3954266011714935</right_val></_></_>
        <_>
          <_>
            <feature>
              <rects>
                <_>
                  18 13 6 5 -1.</_>
                <_>
                  21 13 3 5 2.</_></rects>
              <tilted>0</tilted></feature>
            <threshold>0.0108580095693469</threshold>
            <left_node>1</left_node>
            <right_val>0.4043394029140472</right_val></_>
          <_>
            <feature>
              <rects>
                <_>
                  20 4 4 12 -1.</_>
                <_>
                  22 4 2 12 2.</_></rects>
              <tilted>0</tilted></feature>
            <threshold>-0.0119418399408460</threshold>
            <left_val>0.3119921982288361</left_val>
            <right_val>-0.3184565007686615</right_val></_></_>
        <_>
          <_>
            <feature>
              <rects>
                <_>
                  9 16 7 3 -1.</_>
                <_>
                  9 17 7 1 3.</_></rects>
              <tilted>0</tilted></feature>
            <threshold>8.2363300025463104e-003</threshold>
            <left_node>1</left_node>
            <right_val>0.5381314158439636</right_val></_>
          <_>
            <feature>
              <rects>
                <_>
                  1 7 2 12 -1.</_>
                <_>
                  1 7 1 6 2.</_>
                <_>
                  2 13 1 6 2.</_></rects>
              <tilted>0</tilted></feature>
            <threshold>-2.2215479984879494e-003</threshold>
            <left_val>0.2639921903610230</left_val>
            <right_val>-0.2600697875022888</right_val></_></_>
        <_>
          <_>
            <feature>
              <rects>
                <_>
                  0 6 3 5 -1.</_>
                <_>
                  1 6 1 5 3.</_></rects>
              <tilted>0</tilted></feature>
            <threshold>1.1515920050442219e-003</threshold>
            <left_node>1</left_node>
            <right_val>0.3252322971820831</right_val></_>
          <_>
            <feature>
              <rects>
                <_>
                  20 8 3 9 -1.</_>
                <_>
                  21 8 1 9 3.</_></rects>
              <tilted>0</tilted></feature>
            <threshold>-2.6938628870993853e-003</threshold>
            <left_val>0.2552607953548431</left_val>
            <right_val>-0.3164109885692596</right_val></_></_>
        <_>
          <_>
            <feature>
              <rects>
                <_>
                  1 9 20 4 -1.</_>
                <_>
                  1 10 20 2 2.</_></rects>
              <tilted>0</tilted></feature>
            <threshold>-0.0163450203835964</threshold>
            <left_val>0.4595532119274139</left_val>
            <right_node>1</right_node></_>
          <_>
            <feature>
              <rects>
                <_>
                  1 8 13 3 -1.</_>
                <_>
                  1 9 13 1 3.</_></rects>
              <tilted>0</tilted></feature>
            <threshold>-7.3107117787003517e-003</threshold>
            <left_val>0.3549484014511108</left_val>
            <right_val>-0.2982251942157745</right_val></_></_>
        <_>
          <_>
            <feature>
              <rects>
                <_>
                  3 6 19 4 -1.</_>
                <_>
                  3 7 19 2 2.</_></rects>
              <tilted>0</tilted></feature>
            <threshold>-9.2206755653023720e-003</threshold>
            <left_val>0.3889864087104797</left_val>
            <right_node>1</right_node></_>
          <_>
            <feature>
              <rects>
                <_>
                  8 5 11 3 -1.</_>
                <_>
                  8 6 11 1 3.</_></rects>
              <tilted>0</tilted></feature>
            <threshold>-8.4008099511265755e-003</threshold>
            <left_val>0.3322261869907379</left_val>
            <right_val>-0.2864460945129395</right_val></_></_>
        <_>
          <_>
            <feature>
              <rects>
                <_>
                  2 9 19 14 -1.</_>
                <_>
                  2 16 19 7 2.</_></rects>
              <tilted>0</tilted></feature>
            <threshold>0.2978459000587463</threshold>
            <left_node>1</left_node>
            <right_val>0.6917526125907898</right_val></_>
          <_>
            <feature>
              <rects>
                <_>
                  7 13 10 6 -1.</_>
                <_>
                  7 16 10 3 2.</_></rects>
              <tilted>0</tilted></feature>
            <threshold>-0.0182270407676697</threshold>
            <left_val>0.1996193975210190</left_val>
            <right_val>-0.2807922065258026</right_val></_></_>
        <_>
          <_>
            <feature>
              <rects>
                <_>
                  20 6 3 7 -1.</_>
                <_>
                  21 6 1 7 3.</_></rects>
              <tilted>0</tilted></feature>
            <threshold>2.5096999015659094e-003</threshold>
            <left_node>1</left_node>
            <right_val>0.3390283882617950</right_val></_>
          <_>
            <feature>
              <rects>
                <_>
                  21 3 3 14 -1.</_>
                <_>
                  22 3 1 14 3.</_></rects>
              <tilted>0</tilted></feature>
            <threshold>4.3441229499876499e-003</threshold>
            <left_val>-0.2379802018404007</left_val>
            <right_val>0.3063117861747742</right_val></_></_>
        <_>
          <_>
            <feature>
              <rects>
                <_>
                  7 17 10 4 -1.</_>
                <_>
                  7 18 10 2 2.</_></rects>
              <tilted>0</tilted></feature>
            <threshold>0.0135652897879481</threshold>
            <left_node>1</left_node>
            <right_val>0.4739814102649689</right_val></_>
          <_>
            <feature>
              <rects>
                <_>
                  14 21 2 2 -1.</_>
                <_>
                  15 21 1 2 2.</_></rects>
              <tilted>0</tilted></feature>
            <threshold>-3.8343100459314883e-004</threshold>
            <left_val>-0.5654705166816711</left_val>
            <right_val>0.0411286689341068</right_val></_></_>
        <_>
          <_>
            <feature>
              <rects>
                <_>
                  0 16 10 8 -1.</_>
                <_>
                  5 16 5 8 2.</_></rects>
              <tilted>0</tilted></feature>
            <threshold>-3.2199728593695909e-005</threshold>
            <left_val>0.1277761012315750</left_val>
            <right_node>1</right_node></_>
          <_>
            <feature>
              <rects>
                <_>
                  0 10 4 9 -1.</_>
                <_>
                  2 10 2 9 2.</_></rects>
              <tilted>0</tilted></feature>
            <threshold>7.2592138312757015e-003</threshold>
            <left_val>-0.5938885807991028</left_val>
            <right_val>0.1883227974176407</right_val></_></_>
        <_>
          <_>
            <feature>
              <rects>
                <_>
                  8 21 1 3 -1.</_>
                <_>
                  8 22 1 1 3.</_></rects>
              <tilted>0</tilted></feature>
            <threshold>-2.5785890102270059e-005</threshold>
            <left_val>0.1911240965127945</left_val>
            <right_node>1</right_node></_>
          <_>
            <feature>
              <rects>
                <_>
                  8 21 1 3 -1.</_>
                <_>
                  8 22 1 1 3.</_></rects>
              <tilted>0</tilted></feature>
            <threshold>2.6555080694379285e-005</threshold>
            <left_val>-0.8695229291915894</left_val>
            <right_val>-0.0657001435756683</right_val></_></_>
        <_>
          <_>
            <feature>
              <rects>
                <_>
                  0 11 4 12 -1.</_>
                <_>
                  2 11 2 12 2.</_></rects>
              <tilted>0</tilted></feature>
            <threshold>-9.8142249044030905e-004</threshold>
            <left_val>0.1367904990911484</left_val>
            <right_node>1</right_node></_>
          <_>
            <feature>
              <rects>
                <_>
                  0 4 4 15 -1.</_>
                <_>
                  2 4 2 15 2.</_></rects>
              <tilted>0</tilted></feature>
            <threshold>3.4473589039407670e-004</threshold>
            <left_val>-0.8034098744392395</left_val>
            <right_val>-0.0639878734946251</right_val></_></_>
        <_>
          <_>
            <feature>
              <rects>
                <_>
                  5 10 11 3 -1.</_>
                <_>
                  5 11 11 1 3.</_></rects>
              <tilted>0</tilted></feature>
            <threshold>6.5889181569218636e-003</threshold>
            <left_node>1</left_node>
            <right_val>0.3936912119388580</right_val></_>
          <_>
            <feature>
              <rects>
                <_>
                  16 22 2 1 -1.</_>
                <_>
                  17 22 1 1 2.</_></rects>
              <tilted>0</tilted></feature>
            <threshold>-5.7672627735882998e-004</threshold>
            <left_val>-0.7954937219619751</left_val>
            <right_val>-0.0231946706771851</right_val></_></_></trees>
      <stage_threshold>-1.1356309652328491</stage_threshold>
      <parent>-1</parent>
      <next>-1</next></_>
    <_>
      <trees>
        <_>
          <_>
            <feature>
              <rects>
                <_>
                  2 7 19 16 -1.</_>
                <_>
                  2 15 19 8 2.</_></rects>
              <tilted>0</tilted></feature>
            <threshold>-0.1480192989110947</threshold>
            <left_node>1</left_node>
            <right_val>-0.3721094131469727</right_val></_>
          <_>
            <feature>
              <rects>
                <_>
                  20 19 4 4 -1.</_>
                <_>
                  22 19 2 4 2.</_></rects>
              <tilted>0</tilted></feature>
            <threshold>1.2995320139452815e-003</threshold>
            <left_val>-0.3013336956501007</left_val>
            <right_val>0.6491925716400147</right_val></_></_>
        <_>
          <_>
            <feature>
              <rects>
                <_>
                  8 8 5 3 -1.</_>
                <_>
                  8 9 5 1 3.</_></rects>
              <tilted>0</tilted></feature>
            <threshold>5.9849908575415611e-003</threshold>
            <left_node>1</left_node>
            <right_val>0.6521618962287903</right_val></_>
          <_>
            <feature>
              <rects>
                <_>
                  10 8 4 3 -1.</_>
                <_>
                  10 9 4 1 3.</_></rects>
              <tilted>0</tilted></feature>
            <threshold>-4.2647751979529858e-003</threshold>
            <left_val>0.5665069222450256</left_val>
            <right_val>-0.2547956109046936</right_val></_></_>
        <_>
          <_>
            <feature>
              <rects>
                <_>
                  2 7 2 2 -1.</_>
                <_>
                  2 7 1 1 2.</_>
                <_>
                  3 8 1 1 2.</_></rects>
              <tilted>0</tilted></feature>
            <threshold>5.2285112906247377e-004</threshold>
            <left_node>1</left_node>
            <right_val>0.5544037222862244</right_val></_>
          <_>
            <feature>
              <rects>
                <_>
                  2 7 2 2 -1.</_>
                <_>
                  2 7 1 1 2.</_>
                <_>
                  3 8 1 1 2.</_></rects>
              <tilted>0</tilted></feature>
            <threshold>-5.1474617794156075e-004</threshold>
            <left_val>0.5129197239875794</left_val>
            <right_val>-0.2784808874130249</right_val></_></_>
        <_>
          <_>
            <feature>
              <rects>
                <_>
                  6 23 8 1 -1.</_>
                <_>
                  8 23 4 1 2.</_></rects>
              <tilted>0</tilted></feature>
            <threshold>6.1397190438583493e-004</threshold>
            <left_node>1</left_node>
            <right_val>-0.5151795148849487</right_val></_>
          <_>
            <feature>
              <rects>
                <_>
                  7 22 6 2 -1.</_>
                <_>
                  9 22 2 2 3.</_></rects>
              <tilted>0</tilted></feature>
            <threshold>-1.8155230209231377e-003</threshold>
            <left_val>-0.5031369924545288</left_val>
            <right_val>0.3037371933460236</right_val></_></_>
        <_>
          <_>
            <feature>
              <rects>
                <_>
                  0 11 4 12 -1.</_>
                <_>
                  2 11 2 12 2.</_></rects>
              <tilted>0</tilted></feature>
            <threshold>-6.0441480018198490e-003</threshold>
            <left_val>0.3213494122028351</left_val>
            <right_node>1</right_node></_>
          <_>
            <feature>
              <rects>
                <_>
                  0 8 3 11 -1.</_>
                <_>
                  1 8 1 11 3.</_></rects>
              <tilted>0</tilted></feature>
            <threshold>-4.6770139597356319e-003</threshold>
            <left_val>0.3507604002952576</left_val>
            <right_val>-0.3531455099582672</right_val></_></_>
        <_>
          <_>
            <feature>
              <rects>
                <_>
                  12 0 1 3 -1.</_>
                <_>
                  12 1 1 1 3.</_></rects>
              <tilted>0</tilted></feature>
            <threshold>-1.3090970460325480e-003</threshold>
            <left_val>0.5802903175354004</left_val>
            <right_node>1</right_node></_>
          <_>
            <feature>
              <rects>
                <_>
                  12 1 3 3 -1.</_>
                <_>
                  12 2 3 1 3.</_></rects>
              <tilted>0</tilted></feature>
            <threshold>-5.9247999452054501e-003</threshold>
            <left_val>0.6381018757820129</left_val>
            <right_val>-0.2177619934082031</right_val></_></_>
        <_>
          <_>
            <feature>
              <rects>
                <_>
                  12 14 2 3 -1.</_>
                <_>
                  12 15 2 1 3.</_></rects>
              <tilted>0</tilted></feature>
            <threshold>2.3594580125063658e-003</threshold>
            <left_node>1</left_node>
            <right_val>0.5382900834083557</right_val></_>
          <_>
            <feature>
              <rects>
                <_>
                  19 7 2 2 -1.</_>
                <_>
                  19 7 1 1 2.</_>
                <_>
                  20 8 1 1 2.</_></rects>
              <tilted>0</tilted></feature>
            <threshold>-5.5267312563955784e-004</threshold>
            <left_val>0.4240491986274719</left_val>
            <right_val>-0.2267623990774155</right_val></_></_>
        <_>
          <_>
            <feature>
              <rects>
                <_>
                  8 4 12 20 -1.</_>
                <_>
                  8 9 12 10 2.</_></rects>
              <tilted>0</tilted></feature>
            <threshold>-0.1688069999217987</threshold>
            <left_val>0.5037642717361450</left_val>
            <right_node>1</right_node></_>
          <_>
            <feature>
              <rects>
                <_>
                  3 14 16 8 -1.</_>
                <_>
                  3 18 16 4 2.</_></rects>
              <tilted>0</tilted></feature>
            <threshold>-0.0876582190394402</threshold>
            <left_val>0.2798027098178864</left_val>
            <right_val>-0.2922833859920502</right_val></_></_>
        <_>
          <_>
            <feature>
              <rects>
                <_>
                  12 14 3 3 -1.</_>
                <_>
                  12 15 3 1 3.</_></rects>
              <tilted>0</tilted></feature>
            <threshold>-3.3982230816036463e-003</threshold>
            <left_val>0.5399048924446106</left_val>
            <right_node>1</right_node></_>
          <_>
            <feature>
              <rects>
                <_>
                  13 2 2 3 -1.</_>
                <_>
                  13 3 2 1 3.</_></rects>
              <tilted>0</tilted></feature>
            <threshold>-3.5143638961017132e-003</threshold>
            <left_val>0.5002726912498474</left_val>
            <right_val>-0.1796882003545761</right_val></_></_>
        <_>
          <_>
            <feature>
              <rects>
                <_>
                  0 19 24 5 -1.</_>
                <_>
                  6 19 12 5 2.</_></rects>
              <tilted>0</tilted></feature>
            <threshold>0.0185126792639494</threshold>
            <left_node>1</left_node>
            <right_val>-0.5485885143280029</right_val></_>
          <_>
            <feature>
              <rects>
                <_>
                  22 22 2 2 -1.</_>
                <_>
                  23 22 1 2 2.</_></rects>
              <tilted>0</tilted></feature>
            <threshold>-2.2866990184411407e-004</threshold>
            <left_val>-0.3246431052684784</left_val>
            <right_val>0.2372958958148956</right_val></_></_>
        <_>
          <_>
            <feature>
              <rects>
                <_>
                  2 9 2 2 -1.</_>
                <_>
                  2 9 1 1 2.</_>
                <_>
                  3 10 1 1 2.</_></rects>
              <tilted>0</tilted></feature>
            <threshold>6.7671318538486958e-004</threshold>
            <left_node>1</left_node>
            <right_val>0.4947448074817658</right_val></_>
          <_>
            <feature>
              <rects>
                <_>
                  2 8 2 2 -1.</_>
                <_>
                  2 8 1 1 2.</_>
                <_>
                  3 9 1 1 2.</_></rects>
              <tilted>0</tilted></feature>
            <threshold>7.1847828803583980e-004</threshold>
            <left_val>-0.1855995953083038</left_val>
            <right_val>0.5267438888549805</right_val></_></_>
        <_>
          <_>
            <feature>
              <rects>
                <_>
                  11 20 1 3 -1.</_>
                <_>
                  11 21 1 1 3.</_></rects>
              <tilted>0</tilted></feature>
            <threshold>2.2965190000832081e-003</threshold>
            <left_node>1</left_node>
            <right_val>0.6958218216896057</right_val></_>
          <_>
            <feature>
              <rects>
                <_>
                  11 22 6 2 -1.</_>
                <_>
                  13 22 2 2 3.</_></rects>
              <tilted>0</tilted></feature>
            <threshold>1.1387249687686563e-003</threshold>
            <left_val>0.0584272108972073</left_val>
            <right_val>-0.4865537881851196</right_val></_></_>
        <_>
          <_>
            <feature>
              <rects>
                <_>
                  14 20 1 3 -1.</_>
                <_>
                  14 21 1 1 3.</_></rects>
              <tilted>0</tilted></feature>
            <threshold>-1.4976919628679752e-003</threshold>
            <left_val>0.5202705264091492</left_val>
            <right_node>1</right_node></_>
          <_>
            <feature>
              <rects>
                <_>
                  2 11 2 2 -1.</_>
                <_>
                  2 11 1 1 2.</_>
                <_>
                  3 12 1 1 2.</_></rects>
              <tilted>0</tilted></feature>
            <threshold>5.4592418018728495e-004</threshold>
            <left_val>-0.2147621065378189</left_val>
            <right_val>0.3688043057918549</right_val></_></_>
        <_>
          <_>
            <feature>
              <rects>
                <_>
                  12 22 6 2 -1.</_>
                <_>
                  14 22 2 2 3.</_></rects>
              <tilted>0</tilted></feature>
            <threshold>-2.4496400728821754e-003</threshold>
            <left_val>-0.5462368130683899</left_val>
            <right_node>1</right_node></_>
          <_>
            <feature>
              <rects>
                <_>
                  18 9 3 14 -1.</_>
                <_>
                  19 9 1 14 3.</_></rects>
              <tilted>0</tilted></feature>
            <threshold>-3.4889110829681158e-003</threshold>
            <left_val>0.4801534116268158</left_val>
            <right_val>-0.0623273104429245</right_val></_></_>
        <_>
          <_>
            <feature>
              <rects>
                <_>
                  20 1 3 20 -1.</_>
                <_>
                  21 1 1 20 3.</_></rects>
              <tilted>0</tilted></feature>
            <threshold>-4.2482591234147549e-003</threshold>
            <left_val>0.3391760885715485</left_val>
            <right_node>1</right_node></_>
          <_>
            <feature>
              <rects>
                <_>
                  21 4 3 14 -1.</_>
                <_>
                  22 4 1 14 3.</_></rects>
              <tilted>0</tilted></feature>
            <threshold>-3.2814850565046072e-003</threshold>
            <left_val>0.3575125932693481</left_val>
            <right_val>-0.3604480922222138</right_val></_></_>
        <_>
          <_>
            <feature>
              <rects>
                <_>
                  13 23 6 1 -1.</_>
                <_>
                  15 23 2 1 3.</_></rects>
              <tilted>0</tilted></feature>
            <threshold>6.8890361580997705e-004</threshold>
            <left_node>1</left_node>
            <right_val>-0.4547075033187866</right_val></_>
          <_>
            <feature>
              <rects>
                <_>
                  0 23 2 1 -1.</_>
                <_>
                  1 23 1 1 2.</_></rects>
              <tilted>0</tilted></feature>
            <threshold>1.1457600339781493e-004</threshold>
            <left_val>0.2731074988842011</left_val>
            <right_val>-0.3143289983272553</right_val></_></_>
        <_>
          <_>
            <feature>
              <rects>
                <_>
                  19 5 3 16 -1.</_>
                <_>
                  20 5 1 16 3.</_></rects>
              <tilted>0</tilted></feature>
            <threshold>-3.4499110188335180e-003</threshold>
            <left_node>1</left_node>
            <right_val>-0.1951280981302261</right_val></_>
          <_>
            <feature>
              <rects>
                <_>
                  18 1 6 17 -1.</_>
                <_>
                  20 1 2 17 3.</_></rects>
              <tilted>0</tilted></feature>
            <threshold>-0.0546225905418396</threshold>
            <left_val>-0.3727526962757111</left_val>
            <right_val>0.4091678857803345</right_val></_></_>
        <_>
          <_>
            <feature>
              <rects>
                <_>
                  8 0 6 6 -1.</_>
                <_>
                  8 2 6 2 3.</_></rects>
              <tilted>0</tilted></feature>
            <threshold>0.0111635299399495</threshold>
            <left_node>1</left_node>
            <right_val>0.3578664064407349</right_val></_>
          <_>
            <feature>
              <rects>
                <_>
                  8 4 4 3 -1.</_>
                <_>
                  8 5 4 1 3.</_></rects>
              <tilted>0</tilted></feature>
            <threshold>-4.3881027959287167e-003</threshold>
            <left_val>0.4975509047508240</left_val>
            <right_val>-0.1914879977703095</right_val></_></_>
        <_>
          <_>
            <feature>
              <rects>
                <_>
                  5 8 13 16 -1.</_>
                <_>
                  5 12 13 8 2.</_></rects>
              <tilted>0</tilted></feature>
            <threshold>-0.1298830062150955</threshold>
            <left_val>0.3740608990192413</left_val>
            <right_node>1</right_node></_>
          <_>
            <feature>
              <rects>
                <_>
                  2 7 20 16 -1.</_>
                <_>
                  2 15 20 8 2.</_></rects>
              <tilted>0</tilted></feature>
            <threshold>0.4201419949531555</threshold>
            <left_val>-0.2037461996078491</left_val>
            <right_val>0.6145740151405335</right_val></_></_>
        <_>
          <_>
            <feature>
              <rects>
                <_>
                  4 0 3 9 -1.</_>
                <_>
                  5 0 1 9 3.</_></rects>
              <tilted>0</tilted></feature>
            <threshold>-2.0714369602501392e-003</threshold>
            <left_val>0.3504883944988251</left_val>
            <right_node>1</right_node></_>
          <_>
            <feature>
              <rects>
                <_>
                  3 2 3 18 -1.</_>
                <_>
                  4 2 1 18 3.</_></rects>
              <tilted>0</tilted></feature>
            <threshold>-3.7341269198805094e-003</threshold>
            <left_val>0.2949495017528534</left_val>
            <right_val>-0.3086476922035217</right_val></_></_>
        <_>
          <_>
            <feature>
              <rects>
                <_>
                  3 4 3 14 -1.</_>
                <_>
                  4 4 1 14 3.</_></rects>
              <tilted>0</tilted></feature>
            <threshold>1.5554629499092698e-003</threshold>
            <left_node>1</left_node>
            <right_val>0.2853026092052460</right_val></_>
          <_>
            <feature>
              <rects>
                <_>
                  4 1 3 13 -1.</_>
                <_>
                  5 1 1 13 3.</_></rects>
              <tilted>0</tilted></feature>
            <threshold>9.3920610379427671e-004</threshold>
            <left_val>-0.3209331929683685</left_val>
            <right_val>0.1738379001617432</right_val></_></_>
        <_>
          <_>
            <feature>
              <rects>
                <_>
                  12 15 1 2 -1.</_>
                <_>
                  12 16 1 1 2.</_></rects>
              <tilted>0</tilted></feature>
            <threshold>-2.8330869099590927e-005</threshold>
            <left_val>0.1665076017379761</left_val>
            <right_node>1</right_node></_>
          <_>
            <feature>
              <rects>
                <_>
                  14 17 1 2 -1.</_>
                <_>
                  14 18 1 1 2.</_></rects>
              <tilted>0</tilted></feature>
            <threshold>-3.2800810004118830e-005</threshold>
            <left_val>0.0113208601251245</left_val>
            <right_val>-0.5351799130439758</right_val></_></_>
        <_>
          <_>
            <feature>
              <rects>
                <_>
                  9 21 4 2 -1.</_>
                <_>
                  10 21 2 2 2.</_></rects>
              <tilted>0</tilted></feature>
            <threshold>2.7322891401126981e-004</threshold>
            <left_node>1</left_node>
            <right_val>-0.3524951934814453</right_val></_>
          <_>
            <feature>
              <rects>
                <_>
                  7 20 4 3 -1.</_>
                <_>
                  8 20 2 3 2.</_></rects>
              <tilted>0</tilted></feature>
            <threshold>5.1050417823716998e-004</threshold>
            <left_val>0.3064695000648499</left_val>
            <right_val>-0.2170979976654053</right_val></_></_>
        <_>
          <_>
            <feature>
              <rects>
                <_>
                  20 8 2 2 -1.</_>
                <_>
                  20 8 1 1 2.</_>
                <_>
                  21 9 1 1 2.</_></rects>
              <tilted>0</tilted></feature>
            <threshold>-4.1542490362189710e-004</threshold>
            <left_val>0.3661470115184784</left_val>
            <right_node>1</right_node></_>
          <_>
            <feature>
              <rects>
                <_>
                  8 4 1 3 -1.</_>
                <_>
                  8 5 1 1 3.</_></rects>
              <tilted>0</tilted></feature>
            <threshold>1.8328359583392739e-003</threshold>
            <left_val>-0.2191547006368637</left_val>
            <right_val>0.5179365277290344</right_val></_></_>
        <_>
          <_>
            <feature>
              <rects>
                <_>
                  3 19 2 1 -1.</_>
                <_>
                  3 19 1 1 2.</_></rects>
              <tilted>1</tilted></feature>
            <threshold>1.3147800018487033e-005</threshold>
            <left_node>1</left_node>
            <right_val>0.1734344065189362</right_val></_>
          <_>
            <feature>
              <rects>
                <_>
                  0 14 6 6 -1.</_>
                <_>
                  3 14 3 6 2.</_></rects>
              <tilted>0</tilted></feature>
            <threshold>-4.7907060943543911e-003</threshold>
            <left_val>0.1378836035728455</left_val>
            <right_val>-0.3705931901931763</right_val></_></_>
        <_>
          <_>
            <feature>
              <rects>
                <_>
                  9 11 11 3 -1.</_>
                <_>
                  9 12 11 1 3.</_></rects>
              <tilted>0</tilted></feature>
            <threshold>8.2205031067132950e-003</threshold>
            <left_node>1</left_node>
            <right_val>0.3500665128231049</right_val></_>
          <_>
            <feature>
              <rects>
                <_>
                  5 23 3 1 -1.</_>
                <_>
                  6 23 1 1 3.</_></rects>
              <tilted>0</tilted></feature>
            <threshold>1.7927509907167405e-004</threshold>
            <left_val>0.0154935102909803</left_val>
            <right_val>-0.5236526131629944</right_val></_></_></trees>
      <stage_threshold>-1.1777030229568481</stage_threshold>
      <parent>0</parent>
      <next>-1</next></_>
    <_>
      <trees>
        <_>
          <_>
            <feature>
              <rects>
                <_>
                  3 16 20 8 -1.</_>
                <_>
                  3 18 20 4 2.</_></rects>
              <tilted>0</tilted></feature>
            <threshold>-0.0828694999217987</threshold>
            <left_val>0.4462811946868897</left_val>
            <right_node>1</right_node></_>
          <_>
            <feature>
              <rects>
                <_>
                  5 6 13 18 -1.</_>
                <_>
                  5 12 13 6 3.</_></rects>
              <tilted>0</tilted></feature>
            <threshold>-0.2490531951189041</threshold>
            <left_val>0.3900285065174103</left_val>
            <right_val>-0.3128448128700256</right_val></_></_>
        <_>
          <_>
            <feature>
              <rects>
                <_>
                  10 22 8 2 -1.</_>
                <_>
                  12 22 4 2 2.</_></rects>
              <tilted>0</tilted></feature>
            <threshold>6.4458447741344571e-004</threshold>
            <left_node>1</left_node>
            <right_val>-0.5015099048614502</right_val></_>
          <_>
            <feature>
              <rects>
                <_>
                  13 21 9 3 -1.</_>
                <_>
                  16 21 3 3 3.</_></rects>
              <tilted>0</tilted></feature>
            <threshold>1.4092599740251899e-003</threshold>
            <left_val>0.3758228123188019</left_val>
            <right_val>-0.3443019092082977</right_val></_></_>
        <_>
          <_>
            <feature>
              <rects>
                <_>
                  6 23 6 1 -1.</_>
                <_>
                  8 23 2 1 3.</_></rects>
              <tilted>0</tilted></feature>
            <threshold>5.9322750894352794e-004</threshold>
            <left_node>1</left_node>
            <right_val>-0.5060359239578247</right_val></_>
          <_>
            <feature>
              <rects>
                <_>
                  8 23 6 1 -1.</_>
                <_>
                  10 23 2 1 3.</_></rects>
              <tilted>0</tilted></feature>
            <threshold>4.6805888996459544e-004</threshold>
            <left_val>0.2167454063892365</left_val>
            <right_val>-0.4358930885791779</right_val></_></_>
        <_>
          <_>
            <feature>
              <rects>
                <_>
                  20 11 4 12 -1.</_>
                <_>
                  22 11 2 12 2.</_></rects>
              <tilted>0</tilted></feature>
            <threshold>6.2744477763772011e-003</threshold>
            <left_node>1</left_node>
            <right_val>0.2380788028240204</right_val></_>
          <_>
            <feature>
              <rects>
                <_>
                  22 7 2 16 -1.</_>
                <_>
                  22 7 1 8 2.</_>
                <_>
                  23 15 1 8 2.</_></rects>
              <tilted>0</tilted></feature>
            <threshold>3.8600990083068609e-003</threshold>
            <left_val>-0.3465915024280548</left_val>
            <right_val>0.3225192129611969</right_val></_></_>
        <_>
          <_>
            <feature>
              <rects>
                <_>
                  3 8 2 2 -1.</_>
                <_>
                  3 8 1 1 2.</_>
                <_>
                  4 9 1 1 2.</_></rects>
              <tilted>0</tilted></feature>
            <threshold>-6.6331098787486553e-004</threshold>
            <left_val>0.4833388924598694</left_val>
            <right_node>1</right_node></_>
          <_>
            <feature>
              <rects>
                <_>
                  3 8 2 2 -1.</_>
                <_>
                  3 8 1 1 2.</_>
                <_>
                  4 9 1 1 2.</_></rects>
              <tilted>0</tilted></feature>
            <threshold>4.4046121183782816e-004</threshold>
            <left_val>-0.2454428970813751</left_val>
            <right_val>0.3373003900051117</right_val></_></_>
        <_>
          <_>
            <feature>
              <rects>
                <_>
                  14 1 10 6 -1.</_>
                <_>
                  19 1 5 6 2.</_></rects>
              <tilted>0</tilted></feature>
            <threshold>-9.0346205979585648e-003</threshold>
            <left_val>0.2071907073259354</left_val>
            <right_node>1</right_node></_>
          <_>
            <feature>
              <rects>
                <_>
                  17 4 3 4 -1.</_>
                <_>
                  18 4 1 4 3.</_></rects>
              <tilted>0</tilted></feature>
            <threshold>-1.5345549909397960e-003</threshold>
            <left_val>0.2120245993137360</left_val>
            <right_val>-0.3468964099884033</right_val></_></_>
        <_>
          <_>
            <feature>
              <rects>
                <_>
                  2 10 11 12 -1.</_>
                <_>
                  2 16 11 6 2.</_></rects>
              <tilted>0</tilted></feature>
            <threshold>0.1563839018344879</threshold>
            <left_node>1</left_node>
            <right_val>0.5198696851730347</right_val></_>
          <_>
            <feature>
              <rects>
                <_>
                  10 22 1 2 -1.</_>
                <_>
                  10 23 1 1 2.</_></rects>
              <tilted>0</tilted></feature>
            <threshold>2.9964670829940587e-005</threshold>
            <left_val>-0.3579384088516235</left_val>
            <right_val>0.1022616997361183</right_val></_></_>
        <_>
          <_>
            <feature>
              <rects>
                <_>
                  12 1 1 3 -1.</_>
                <_>
                  12 2 1 1 3.</_></rects>
              <tilted>0</tilted></feature>
            <threshold>2.3385609965771437e-003</threshold>
            <left_node>1</left_node>
            <right_val>0.5441852211952210</right_val></_>
          <_>
            <feature>
              <rects>
                <_>
                  7 2 9 3 -1.</_>
                <_>
                  7 3 9 1 3.</_></rects>
              <tilted>0</tilted></feature>
            <threshold>0.0132386097684503</threshold>
            <left_val>-0.1384638994932175</left_val>
            <right_val>0.4856437146663666</right_val></_></_>
        <_>
          <_>
            <feature>
              <rects>
                <_>
                  4 9 16 14 -1.</_>
                <_>
                  4 16 16 7 2.</_></rects>
              <tilted>0</tilted></feature>
            <threshold>-0.1731842011213303</threshold>
            <left_val>0.2660405039787293</left_val>
            <right_node>1</right_node></_>
          <_>
            <feature>
              <rects>
                <_>
                  9 3 15 21 -1.</_>
                <_>
                  14 10 5 7 9.</_></rects>
              <tilted>0</tilted></feature>
            <threshold>-0.0891889482736588</threshold>
            <left_val>0.0409507006406784</left_val>
            <right_val>-0.5599169731140137</right_val></_></_>
        <_>
          <_>
            <feature>
              <rects>
                <_>
                  19 8 2 2 -1.</_>
                <_>
                  19 8 1 1 2.</_>
                <_>
                  20 9 1 1 2.</_></rects>
              <tilted>0</tilted></feature>
            <threshold>-4.5942500582896173e-004</threshold>
            <left_val>0.3565902113914490</left_val>
            <right_node>1</right_node></_>
          <_>
            <feature>
              <rects>
                <_>
                  19 8 2 2 -1.</_>
                <_>
                  19 8 1 1 2.</_>
                <_>
                  20 9 1 1 2.</_></rects>
              <tilted>0</tilted></feature>
            <threshold>3.1491508707404137e-004</threshold>
            <left_val>-0.3007831871509552</left_val>
            <right_val>0.2025422006845474</right_val></_></_>
        <_>
          <_>
            <feature>
              <rects>
                <_>
                  0 12 6 8 -1.</_>
                <_>
                  2 12 2 8 3.</_></rects>
              <tilted>0</tilted></feature>
            <threshold>-6.9306129589676857e-003</threshold>
            <left_val>0.2364356070756912</left_val>
            <right_node>1</right_node></_>
          <_>
            <feature>
              <rects>
                <_>
                  18 8 2 7 -1.</_>
                <_>
                  18 8 1 7 2.</_></rects>
              <tilted>1</tilted></feature>
            <threshold>-9.5623917877674103e-003</threshold>
            <left_val>0.4568606913089752</left_val>
            <right_val>-0.2608917057514191</right_val></_></_>
        <_>
          <_>
            <feature>
              <rects>
                <_>
                  10 6 2 3 -1.</_>
                <_>
                  10 7 2 1 3.</_></rects>
              <tilted>0</tilted></feature>
            <threshold>-9.2412822414189577e-004</threshold>
            <left_val>0.2761628925800324</left_val>
            <right_node>1</right_node></_>
          <_>
            <feature>
              <rects>
                <_>
                  7 7 6 3 -1.</_>
                <_>
                  7 8 6 1 3.</_></rects>
              <tilted>0</tilted></feature>
            <threshold>-3.2037489581853151e-003</threshold>
            <left_val>0.2577480077743530</left_val>
            <right_val>-0.3085780143737793</right_val></_></_>
        <_>
          <_>
            <feature>
              <rects>
                <_>
                  7 22 3 2 -1.</_>
                <_>
                  8 22 1 2 3.</_></rects>
              <tilted>0</tilted></feature>
            <threshold>-5.2451947703957558e-004</threshold>
            <left_val>-0.4785091876983643</left_val>
            <right_node>1</right_node></_>
          <_>
            <feature>
              <rects>
                <_>
                  10 6 4 4 -1.</_>
                <_>
                  10 7 4 2 2.</_></rects>
              <tilted>0</tilted></feature>
            <threshold>3.7673420738428831e-003</threshold>
            <left_val>-0.0307207498699427</left_val>
            <right_val>0.4092651903629303</right_val></_></_>
        <_>
          <_>
            <feature>
              <rects>
                <_>
                  6 3 2 2 -1.</_>
                <_>
                  6 3 1 1 2.</_>
                <_>
                  7 4 1 1 2.</_></rects>
              <tilted>0</tilted></feature>
            <threshold>2.2572470697923563e-005</threshold>
            <left_node>1</left_node>
            <right_val>0.1925688982009888</right_val></_>
          <_>
            <feature>
              <rects>
                <_>
                  6 3 2 2 -1.</_>
                <_>
                  6 3 1 1 2.</_>
                <_>
                  7 4 1 1 2.</_></rects>
              <tilted>0</tilted></feature>
            <threshold>-2.7696649340214208e-005</threshold>
            <left_val>1.2288750149309635e-003</left_val>
            <right_val>-0.5435444712638855</right_val></_></_>
        <_>
          <_>
            <feature>
              <rects>
                <_>
                  11 17 2 3 -1.</_>
                <_>
                  11 18 2 1 3.</_></rects>
              <tilted>0</tilted></feature>
            <threshold>2.8636059723794460e-003</threshold>
            <left_node>1</left_node>
            <right_val>0.4205547869205475</right_val></_>
          <_>
            <feature>
              <rects>
                <_>
                  9 17 10 6 -1.</_>
                <_>
                  9 20 10 3 2.</_></rects>
              <tilted>0</tilted></feature>
            <threshold>0.0947335809469223</threshold>
            <left_val>-0.1412975043058395</left_val>
            <right_val>0.5733060240745544</right_val></_></_>
        <_>
          <_>
            <feature>
              <rects>
                <_>
                  20 7 4 10 -1.</_>
                <_>
                  21 7 2 10 2.</_></rects>
              <tilted>0</tilted></feature>
            <threshold>-2.0102739799767733e-003</threshold>
            <left_val>0.1919716000556946</left_val>
            <right_node>1</right_node></_>
          <_>
            <feature>
              <rects>
                <_>
                  2 0 10 12 -1.</_>
                <_>
                  7 0 5 12 2.</_></rects>
              <tilted>0</tilted></feature>
            <threshold>8.0409636721014977e-003</threshold>
            <left_val>-0.4725722968578339</left_val>
            <right_val>0.0292284302413464</right_val></_></_>
        <_>
          <_>
            <feature>
              <rects>
                <_>
                  3 19 1 4 -1.</_>
                <_>
                  3 20 1 2 2.</_></rects>
              <tilted>0</tilted></feature>
            <threshold>-2.6349860490881838e-005</threshold>
            <left_val>0.1668370962142944</left_val>
            <right_node>1</right_node></_>
          <_>
            <feature>
              <rects>
                <_>
                  5 19 1 3 -1.</_>
                <_>
                  4 20 1 1 3.</_></rects>
              <tilted>1</tilted></feature>
            <threshold>3.2271189411403611e-005</threshold>
            <left_val>-0.6821200251579285</left_val>
            <right_val>-0.0151322698220611</right_val></_></_>
        <_>
          <_>
            <feature>
              <rects>
                <_>
                  2 22 2 1 -1.</_>
                <_>
                  3 22 1 1 2.</_></rects>
              <tilted>0</tilted></feature>
            <threshold>-2.5655890567577444e-005</threshold>
            <left_val>0.1595624983310700</left_val>
            <right_node>1</right_node></_>
          <_>
            <feature>
              <rects>
                <_>
                  1 12 10 12 -1.</_>
                <_>
                  1 18 10 6 2.</_></rects>
              <tilted>0</tilted></feature>
            <threshold>0.0410468801856041</threshold>
            <left_val>-0.4926945865154266</left_val>
            <right_val>0.1292110979557037</right_val></_></_>
        <_>
          <_>
            <feature>
              <rects>
                <_>
                  11 16 2 4 -1.</_>
                <_>
                  11 18 2 2 2.</_></rects>
              <tilted>0</tilted></feature>
            <threshold>-3.9053640648489818e-005</threshold>
            <left_val>0.1756705045700073</left_val>
            <right_node>1</right_node></_>
          <_>
            <feature>
              <rects>
                <_>
                  10 16 3 4 -1.</_>
                <_>
                  10 18 3 2 2.</_></rects>
              <tilted>0</tilted></feature>
            <threshold>1.6011839761631563e-005</threshold>
            <left_val>-0.9235894083976746</left_val>
            <right_val>-0.1324027031660080</right_val></_></_>
        <_>
          <_>
            <feature>
              <rects>
                <_>
                  1 12 10 2 -1.</_>
                <_>
                  1 12 5 1 2.</_>
                <_>
                  6 13 5 1 2.</_></rects>
              <tilted>0</tilted></feature>
            <threshold>1.5674839960411191e-003</threshold>
            <left_node>1</left_node>
            <right_val>0.2488249987363815</right_val></_>
          <_>
            <feature>
              <rects>
                <_>
                  6 11 6 3 -1.</_>
                <_>
                  6 12 6 1 3.</_></rects>
              <tilted>0</tilted></feature>
            <threshold>6.2370169907808304e-003</threshold>
            <left_val>-0.2442467957735062</left_val>
            <right_val>0.3036479949951172</right_val></_></_>
        <_>
          <_>
            <feature>
              <rects>
                <_>
                  12 13 12 11 -1.</_>
                <_>
                  15 13 6 11 2.</_></rects>
              <tilted>0</tilted></feature>
            <threshold>-1.5944060578476638e-005</threshold>
            <left_val>0.0911097377538681</left_val>
            <right_node>1</right_node></_>
          <_>
            <feature>
              <rects>
                <_>
                  12 13 12 10 -1.</_>
                <_>
                  15 13 6 10 2.</_></rects>
              <tilted>0</tilted></feature>
            <threshold>1.4095779988565482e-005</threshold>
            <left_val>-0.9561802148818970</left_val>
            <right_val>-0.1482256948947907</right_val></_></_>
        <_>
          <_>
            <feature>
              <rects>
                <_>
                  16 2 3 3 -1.</_>
                <_>
                  17 3 1 1 9.</_></rects>
              <tilted>0</tilted></feature>
            <threshold>-6.8372418172657490e-004</threshold>
            <left_val>0.1623851060867310</left_val>
            <right_node>1</right_node></_>
          <_>
            <feature>
              <rects>
                <_>
                  17 1 3 3 -1.</_>
                <_>
                  18 2 1 1 9.</_></rects>
              <tilted>0</tilted></feature>
            <threshold>-4.6052670222707093e-004</threshold>
            <left_val>0.0823029130697250</left_val>
            <right_val>-0.4672104120254517</right_val></_></_>
        <_>
          <_>
            <feature>
              <rects>
                <_>
                  15 22 8 2 -1.</_>
                <_>
                  17 22 4 2 2.</_></rects>
              <tilted>0</tilted></feature>
            <threshold>5.9127300046384335e-003</threshold>
            <left_node>1</left_node>
            <right_val>-0.6972566246986389</right_val></_>
          <_>
            <feature>
              <rects>
                <_>
                  17 23 4 1 -1.</_>
                <_>
                  18 23 2 1 2.</_></rects>
              <tilted>0</tilted></feature>
            <threshold>-4.5199730084277689e-004</threshold>
            <left_val>-0.3321830928325653</left_val>
            <right_val>0.1907750964164734</right_val></_></_>
        <_>
          <_>
            <feature>
              <rects>
                <_>
                  2 10 3 5 -1.</_>
                <_>
                  3 10 1 5 3.</_></rects>
              <tilted>0</tilted></feature>
            <threshold>1.7157359980046749e-003</threshold>
            <left_node>1</left_node>
            <right_val>0.2681683003902435</right_val></_>
          <_>
            <feature>
              <rects>
                <_>
                  0 11 3 3 -1.</_>
                <_>
                  1 11 1 3 3.</_></rects>
              <tilted>0</tilted></feature>
            <threshold>-2.3727950174361467e-003</threshold>
            <left_val>0.3719919025897980</left_val>
            <right_val>-0.1989227980375290</right_val></_></_>
        <_>
          <_>
            <feature>
              <rects>
                <_>
                  0 9 3 3 -1.</_>
                <_>
                  1 9 1 3 3.</_></rects>
              <tilted>0</tilted></feature>
            <threshold>2.6990969199687243e-003</threshold>
            <left_node>1</left_node>
            <right_val>0.3980092108249664</right_val></_>
          <_>
            <feature>
              <rects>
                <_>
                  1 23 2 1 -1.</_>
                <_>
                  2 23 1 1 2.</_></rects>
              <tilted>0</tilted></feature>
            <threshold>1.3438190217129886e-004</threshold>
            <left_val>5.7407491840422153e-003</left_val>
            <right_val>-0.5561394095420837</right_val></_></_>
        <_>
          <_>
            <feature>
              <rects>
                <_>
                  15 0 3 4 -1.</_>
                <_>
                  15 2 3 2 2.</_></rects>
              <tilted>0</tilted></feature>
            <threshold>3.0951490771258250e-005</threshold>
            <left_node>1</left_node>
            <right_val>0.1349930018186569</right_val></_>
          <_>
            <feature>
              <rects>
                <_>
                  9 0 3 3 -1.</_>
                <_>
                  9 1 3 1 3.</_></rects>
              <tilted>0</tilted></feature>
            <threshold>6.2816180288791656e-003</threshold>
            <left_val>-0.2453314960002899</left_val>
            <right_val>0.4997132122516632</right_val></_></_>
        <_>
          <_>
            <feature>
              <rects>
                <_>
                  21 19 1 4 -1.</_>
                <_>
                  21 19 1 2 2.</_></rects>
              <tilted>1</tilted></feature>
            <threshold>-1.4925610230420716e-005</threshold>
            <left_val>0.1242040991783142</left_val>
            <right_node>1</right_node></_>
          <_>
            <feature>
              <rects>
                <_>
                  21 19 1 4 -1.</_>
                <_>
                  21 19 1 2 2.</_></rects>
              <tilted>1</tilted></feature>
            <threshold>1.4516140254272614e-005</threshold>
            <left_val>-0.9078996777534485</left_val>
            <right_val>-0.1377007067203522</right_val></_></_>
        <_>
          <_>
            <feature>
              <rects>
                <_>
                  19 23 2 1 -1.</_>
                <_>
                  20 23 1 1 2.</_></rects>
              <tilted>0</tilted></feature>
            <threshold>2.9276119676069357e-005</threshold>
            <left_node>1</left_node>
            <right_val>0.1465308964252472</right_val></_>
          <_>
            <feature>
              <rects>
                <_>
                  1 23 4 1 -1.</_>
                <_>
                  3 23 2 1 2.</_></rects>
              <tilted>0</tilted></feature>
            <threshold>-5.3201051196083426e-004</threshold>
            <left_val>-0.5330473184585571</left_val>
            <right_val>0.0366835184395313</right_val></_></_>
        <_>
          <_>
            <feature>
              <rects>
                <_>
                  10 12 1 2 -1.</_>
                <_>
                  10 13 1 1 2.</_></rects>
              <tilted>0</tilted></feature>
            <threshold>-1.4036830179975368e-005</threshold>
            <left_val>0.1191817969083786</left_val>
            <right_node>1</right_node></_>
          <_>
            <feature>
              <rects>
                <_>
                  10 12 1 2 -1.</_>
                <_>
                  10 13 1 1 2.</_></rects>
              <tilted>0</tilted></feature>
            <threshold>2.6689269361668266e-005</threshold>
            <left_val>-0.8490672707557678</left_val>
            <right_val>-0.0991390720009804</right_val></_></_>
        <_>
          <_>
            <feature>
              <rects>
                <_>
                  10 8 9 9 -1.</_>
                <_>
                  13 8 3 9 3.</_></rects>
              <tilted>0</tilted></feature>
            <threshold>-3.6976840347051620e-003</threshold>
            <left_val>0.1778015941381455</left_val>
            <right_node>1</right_node></_>
          <_>
            <feature>
              <rects>
                <_>
                  10 8 8 8 -1.</_>
                <_>
                  12 8 4 8 2.</_></rects>
              <tilted>0</tilted></feature>
            <threshold>2.3332990240305662e-003</threshold>
            <left_val>-0.4987018108367920</left_val>
            <right_val>-2.4704469833523035e-003</right_val></_></_>
        <_>
          <_>
            <feature>
              <rects>
                <_>
                  3 13 17 3 -1.</_>
                <_>
                  3 14 17 1 3.</_></rects>
              <tilted>0</tilted></feature>
            <threshold>0.0113942902535200</threshold>
            <left_node>1</left_node>
            <right_val>0.3410820960998535</right_val></_>
          <_>
            <feature>
              <rects>
                <_>
                  15 14 4 3 -1.</_>
                <_>
                  15 15 4 1 3.</_></rects>
              <tilted>0</tilted></feature>
            <threshold>6.1010331846773624e-003</threshold>
            <left_val>-0.1322484016418457</left_val>
            <right_val>0.5009554028511047</right_val></_></_>
        <_>
          <_>
            <feature>
              <rects>
                <_>
                  15 21 1 3 -1.</_>
                <_>
                  15 22 1 1 3.</_></rects>
              <tilted>0</tilted></feature>
            <threshold>-2.7214260626351461e-005</threshold>
            <left_val>0.1259769946336746</left_val>
            <right_node>1</right_node></_>
          <_>
            <feature>
              <rects>
                <_>
                  15 21 1 3 -1.</_>
                <_>
                  15 22 1 1 3.</_></rects>
              <tilted>0</tilted></feature>
            <threshold>1.4095779988565482e-005</threshold>
            <left_val>-0.8229361772537231</left_val>
            <right_val>-0.0704726427793503</right_val></_></_>
        <_>
          <_>
            <feature>
              <rects>
                <_>
                  0 10 21 13 -1.</_>
                <_>
                  7 10 7 13 3.</_></rects>
              <tilted>0</tilted></feature>
            <threshold>-1.8741070525720716e-003</threshold>
            <left_val>0.1273891925811768</left_val>
            <right_node>1</right_node></_>
          <_>
            <feature>
              <rects>
                <_>
                  13 4 9 4 -1.</_>
                <_>
                  16 7 3 4 3.</_></rects>
              <tilted>1</tilted></feature>
            <threshold>4.0520710172131658e-005</threshold>
            <left_val>-0.6327164769172669</left_val>
            <right_val>0.0573073886334896</right_val></_></_>
        <_>
          <_>
            <feature>
              <rects>
                <_>
                  10 9 11 14 -1.</_>
                <_>
                  10 16 11 7 2.</_></rects>
              <tilted>0</tilted></feature>
            <threshold>0.1178359985351563</threshold>
            <left_node>1</left_node>
            <right_val>0.3503060936927795</right_val></_>
          <_>
            <feature>
              <rects>
                <_>
                  22 22 2 2 -1.</_>
                <_>
                  23 22 1 2 2.</_></rects>
              <tilted>0</tilted></feature>
            <threshold>-4.0565879317000508e-004</threshold>
            <left_val>-0.5362281799316406</left_val>
            <right_val>0.0300273708999157</right_val></_></_>
        <_>
          <_>
            <feature>
              <rects>
                <_>
                  6 12 18 8 -1.</_>
                <_>
                  6 16 18 4 2.</_></rects>
              <tilted>0</tilted></feature>
            <threshold>-5.5007250048220158e-003</threshold>
            <left_val>0.1107432991266251</left_val>
            <right_node>1</right_node></_>
          <_>
            <feature>
              <rects>
                <_>
                  10 12 5 8 -1.</_>
                <_>
                  10 16 5 4 2.</_></rects>
              <tilted>0</tilted></feature>
            <threshold>8.9603970991447568e-004</threshold>
            <left_val>-0.8340839743614197</left_val>
            <right_val>-0.1038999035954475</right_val></_></_>
        <_>
          <_>
            <feature>
              <rects>
                <_>
                  0 18 4 6 -1.</_>
                <_>
                  2 18 2 6 2.</_></rects>
              <tilted>0</tilted></feature>
            <threshold>-5.2804680308327079e-005</threshold>
            <left_val>0.0757551267743111</left_val>
            <right_node>1</right_node></_>
          <_>
            <feature>
              <rects>
                <_>
                  0 18 4 6 -1.</_>
                <_>
                  2 18 2 6 2.</_></rects>
              <tilted>0</tilted></feature>
            <threshold>1.5657140465918928e-005</threshold>
            <left_val>-0.9462962746620178</left_val>
            <right_val>-0.1084105968475342</right_val></_></_>
        <_>
          <_>
            <feature>
              <rects>
                <_>
                  15 11 9 2 -1.</_>
                <_>
                  15 12 9 1 2.</_></rects>
              <tilted>0</tilted></feature>
            <threshold>-3.5777379525825381e-004</threshold>
            <left_val>0.1223851963877678</left_val>
            <right_node>1</right_node></_>
          <_>
            <feature>
              <rects>
                <_>
                  15 11 9 2 -1.</_>
                <_>
                  15 12 9 1 2.</_></rects>
              <tilted>0</tilted></feature>
            <threshold>3.6171270039631054e-005</threshold>
            <left_val>-0.8612105250358582</left_val>
            <right_val>-0.1149196997284889</right_val></_></_>
        <_>
          <_>
            <feature>
              <rects>
                <_>
                  0 3 20 11 -1.</_>
                <_>
                  5 3 10 11 2.</_></rects>
              <tilted>0</tilted></feature>
            <threshold>5.6903189979493618e-003</threshold>
            <left_node>1</left_node>
            <right_val>0.1233026981353760</right_val></_>
          <_>
            <feature>
              <rects>
                <_>
                  22 1 2 8 -1.</_>
                <_>
                  22 1 2 4 2.</_></rects>
              <tilted>1</tilted></feature>
            <threshold>0.0232413802295923</threshold>
            <left_val>-0.2539764940738678</left_val>
            <right_val>0.3258011937141419</right_val></_></_>
        <_>
          <_>
            <feature>
              <rects>
                <_>
                  4 5 3 3 -1.</_>
                <_>
                  5 5 1 3 3.</_></rects>
              <tilted>0</tilted></feature>
            <threshold>-8.6471089161932468e-004</threshold>
            <left_val>0.2380201965570450</left_val>
            <right_node>1</right_node></_>
          <_>
            <feature>
              <rects>
                <_>
                  4 5 4 2 -1.</_>
                <_>
                  5 5 2 2 2.</_></rects>
              <tilted>0</tilted></feature>
            <threshold>3.4896869328804314e-004</threshold>
            <left_val>-0.4570584893226624</left_val>
            <right_val>0.0536442697048187</right_val></_></_>
        <_>
          <_>
            <feature>
              <rects>
                <_>
                  11 20 1 3 -1.</_>
                <_>
                  11 21 1 1 3.</_></rects>
              <tilted>0</tilted></feature>
            <threshold>-3.2536579965380952e-005</threshold>
            <left_val>0.1759756058454514</left_val>
            <right_node>1</right_node></_>
          <_>
            <feature>
              <rects>
                <_>
                  11 20 1 3 -1.</_>
                <_>
                  11 21 1 1 3.</_></rects>
              <tilted>0</tilted></feature>
            <threshold>1.3754480278294068e-005</threshold>
            <left_val>-0.7748029232025147</left_val>
            <right_val>-0.0121347904205322</right_val></_></_>
        <_>
          <_>
            <feature>
              <rects>
                <_>
                  15 5 3 6 -1.</_>
                <_>
                  16 6 1 6 3.</_></rects>
              <tilted>1</tilted></feature>
            <threshold>-9.5176539616659284e-005</threshold>
            <left_val>0.1610396951436997</left_val>
            <right_node>1</right_node></_>
          <_>
            <feature>
              <rects>
                <_>
                  15 5 3 6 -1.</_>
                <_>
                  16 6 1 6 3.</_></rects>
              <tilted>1</tilted></feature>
            <threshold>2.8026010113535449e-005</threshold>
            <left_val>-0.9865720272064209</left_val>
            <right_val>-0.0985451936721802</right_val></_></_>
        <_>
          <_>
            <feature>
              <rects>
                <_>
                  12 9 3 2 -1.</_>
                <_>
                  12 10 3 1 2.</_></rects>
              <tilted>0</tilted></feature>
            <threshold>-1.4079760148888454e-005</threshold>
            <left_val>0.1179851964116097</left_val>
            <right_node>1</right_node></_>
          <_>
            <feature>
              <rects>
                <_>
                  10 8 4 3 -1.</_>
                <_>
                  10 9 4 1 3.</_></rects>
              <tilted>0</tilted></feature>
            <threshold>-6.5776018891483545e-004</threshold>
            <left_val>0.0587111786007881</left_val>
            <right_val>-0.6713464856147766</right_val></_></_>
        <_>
          <_>
            <feature>
              <rects>
                <_>
                  6 4 11 20 -1.</_>
                <_>
                  6 9 11 10 2.</_></rects>
              <tilted>0</tilted></feature>
            <threshold>0.1648250073194504</threshold>
            <left_node>1</left_node>
            <right_val>0.4251511096954346</right_val></_>
          <_>
            <feature>
              <rects>
                <_>
                  22 22 2 2 -1.</_>
                <_>
                  23 22 1 2 2.</_></rects>
              <tilted>0</tilted></feature>
            <threshold>3.9884279249235988e-004</threshold>
            <left_val>0.0969575867056847</left_val>
            <right_val>-0.3925198912620544</right_val></_></_>
        <_>
          <_>
            <feature>
              <rects>
                <_>
                  12 12 12 9 -1.</_>
                <_>
                  18 12 6 9 2.</_></rects>
              <tilted>0</tilted></feature>
            <threshold>6.7725698463618755e-003</threshold>
            <left_node>1</left_node>
            <right_val>0.1549572944641113</right_val></_>
          <_>
            <feature>
              <rects>
                <_>
                  20 12 4 12 -1.</_>
                <_>
                  20 12 2 6 2.</_>
                <_>
                  22 18 2 6 2.</_></rects>
              <tilted>0</tilted></feature>
            <threshold>8.3182565867900848e-003</threshold>
            <left_val>-0.3326531946659088</left_val>
            <right_val>0.2185478955507278</right_val></_></_>
        <_>
          <_>
            <feature>
              <rects>
                <_>
                  0 14 6 3 -1.</_>
                <_>
                  3 14 3 3 2.</_></rects>
              <tilted>0</tilted></feature>
            <threshold>-1.8029919374384917e-005</threshold>
            <left_val>0.0901053175330162</left_val>
            <right_node>1</right_node></_>
          <_>
            <feature>
              <rects>
                <_>
                  0 14 6 3 -1.</_>
                <_>
                  3 14 3 3 2.</_></rects>
              <tilted>0</tilted></feature>
            <threshold>3.2970408938126639e-005</threshold>
            <left_val>-0.9798899888992310</left_val>
            <right_val>-0.1524294018745422</right_val></_></_>
        <_>
          <_>
            <feature>
              <rects>
                <_>
                  22 11 2 12 -1.</_>
                <_>
                  23 11 1 12 2.</_></rects>
              <tilted>0</tilted></feature>
            <threshold>2.5601979359635152e-005</threshold>
            <left_node>1</left_node>
            <right_val>0.0807738900184631</right_val></_>
          <_>
            <feature>
              <rects>
                <_>
                  0 4 6 8 -1.</_>
                <_>
                  3 4 3 8 2.</_></rects>
              <tilted>0</tilted></feature>
            <threshold>7.9377219080924988e-003</threshold>
            <left_val>-0.3551180064678192</left_val>
            <right_val>0.1849987953901291</right_val></_></_>
        <_>
          <_>
            <feature>
              <rects>
                <_>
                  12 20 10 3 -1.</_>
                <_>
                  17 20 5 3 2.</_></rects>
              <tilted>0</tilted></feature>
            <threshold>-1.4036830179975368e-005</threshold>
            <left_val>0.1664368957281113</left_val>
            <right_node>1</right_node></_>
          <_>
            <feature>
              <rects>
                <_>
                  11 20 10 4 -1.</_>
                <_>
                  16 20 5 4 2.</_></rects>
              <tilted>0</tilted></feature>
            <threshold>5.3279589337762445e-005</threshold>
            <left_val>-0.8109325766563416</left_val>
            <right_val>-0.0669491887092590</right_val></_></_>
        <_>
          <_>
            <feature>
              <rects>
                <_>
                  13 0 1 4 -1.</_>
                <_>
                  13 1 1 2 2.</_></rects>
              <tilted>0</tilted></feature>
            <threshold>7.6414167415350676e-004</threshold>
            <left_node>1</left_node>
            <right_val>0.2497135996818543</right_val></_>
          <_>
            <feature>
              <rects>
                <_>
                  0 23 4 1 -1.</_>
                <_>
                  1 23 2 1 2.</_></rects>
              <tilted>0</tilted></feature>
            <threshold>-1.4599809946957976e-004</threshold>
            <left_val>-0.4352746009826660</left_val>
            <right_val>0.0633306726813316</right_val></_></_>
        <_>
          <_>
            <feature>
              <rects>
                <_>
                  19 5 3 7 -1.</_>
                <_>
                  20 5 1 7 3.</_></rects>
              <tilted>0</tilted></feature>
            <threshold>-1.6565900295972824e-003</threshold>
            <left_val>0.1917456984519959</left_val>
            <right_node>1</right_node></_>
          <_>
            <feature>
              <rects>
                <_>
                  19 6 3 5 -1.</_>
                <_>
                  20 6 1 5 3.</_></rects>
              <tilted>0</tilted></feature>
            <threshold>1.6011839761631563e-005</threshold>
            <left_val>-0.6578776836395264</left_val>
            <right_val>-0.0366920791566372</right_val></_></_>
        <_>
          <_>
            <feature>
              <rects>
                <_>
                  12 12 12 8 -1.</_>
                <_>
                  16 12 4 8 3.</_></rects>
              <tilted>0</tilted></feature>
            <threshold>-3.2813029247336090e-004</threshold>
            <left_val>0.1367138028144836</left_val>
            <right_node>1</right_node></_>
          <_>
            <feature>
              <rects>
                <_>
                  12 12 12 8 -1.</_>
                <_>
                  16 12 4 8 3.</_></rects>
              <tilted>0</tilted></feature>
            <threshold>3.5971819306723773e-004</threshold>
            <left_val>-0.9785484075546265</left_val>
            <right_val>-0.0771636888384819</right_val></_></_>
        <_>
          <_>
            <feature>
              <rects>
                <_>
                  13 13 10 2 -1.</_>
                <_>
                  13 14 10 1 2.</_></rects>
              <tilted>0</tilted></feature>
            <threshold>-1.3527739793062210e-004</threshold>
            <left_val>0.1010897010564804</left_val>
            <right_node>1</right_node></_>
          <_>
            <feature>
              <rects>
                <_>
                  13 13 10 2 -1.</_>
                <_>
                  13 14 10 1 2.</_></rects>
              <tilted>0</tilted></feature>
            <threshold>2.0165189198451117e-005</threshold>
            <left_val>-0.9622340798377991</left_val>
            <right_val>-0.1171132028102875</right_val></_></_>
        <_>
          <_>
            <feature>
              <rects>
                <_>
                  11 18 2 3 -1.</_>
                <_>
                  11 19 2 1 3.</_></rects>
              <tilted>0</tilted></feature>
            <threshold>4.3103108182549477e-003</threshold>
            <left_node>1</left_node>
            <right_val>0.6042408943176270</right_val></_>
          <_>
            <feature>
              <rects>
                <_>
                  11 20 2 4 -1.</_>
                <_>
                  12 20 1 4 2.</_></rects>
              <tilted>0</tilted></feature>
            <threshold>4.0667899884283543e-004</threshold>
            <left_val>0.0706715136766434</left_val>
            <right_val>-0.4347477853298187</right_val></_></_>
        <_>
          <_>
            <feature>
              <rects>
                <_>
                  13 18 3 1 -1.</_>
                <_>
                  14 19 1 1 3.</_></rects>
              <tilted>1</tilted></feature>
            <threshold>-3.0172910555847920e-005</threshold>
            <left_val>0.1123735010623932</left_val>
            <right_node>1</right_node></_>
          <_>
            <feature>
              <rects>
                <_>
                  13 18 3 1 -1.</_>
                <_>
                  14 19 1 1 3.</_></rects>
              <tilted>1</tilted></feature>
            <threshold>2.5318780899397098e-005</threshold>
            <left_val>-0.9570543169975281</left_val>
            <right_val>-0.1116738021373749</right_val></_></_>
        <_>
          <_>
            <feature>
              <rects>
                <_>
                  23 12 1 12 -1.</_>
                <_>
                  23 18 1 6 2.</_></rects>
              <tilted>0</tilted></feature>
            <threshold>1.8397040548734367e-005</threshold>
            <left_node>1</left_node>
            <right_val>0.1040975973010063</right_val></_>
          <_>
            <feature>
              <rects>
                <_>
                  5 8 19 3 -1.</_>
                <_>
                  5 9 19 1 3.</_></rects>
              <tilted>0</tilted></feature>
            <threshold>0.0173673797398806</threshold>
            <left_val>-0.2299949973821640</left_val>
            <right_val>0.3885414898395538</right_val></_></_></trees>
      <stage_threshold>-0.7768862247467041</stage_threshold>
      <parent>1</parent>
      <next>-1</next></_>
    <_>
      <trees>
        <_>
          <_>
            <feature>
              <rects>
                <_>
                  11 22 4 2 -1.</_>
                <_>
                  12 22 2 2 2.</_></rects>
              <tilted>0</tilted></feature>
            <threshold>-8.0742209684103727e-004</threshold>
            <left_val>-0.7813500761985779</left_val>
            <right_node>1</right_node></_>
          <_>
            <feature>
              <rects>
                <_>
                  11 22 4 2 -1.</_>
                <_>
                  12 22 2 2 2.</_></rects>
              <tilted>0</tilted></feature>
            <threshold>3.7581130163744092e-004</threshold>
            <left_val>0.4251917004585266</left_val>
            <right_val>-0.6241800785064697</right_val></_></_>
        <_>
          <_>
            <feature>
              <rects>
                <_>
                  5 16 15 8 -1.</_>
                <_>
                  5 18 15 4 2.</_></rects>
              <tilted>0</tilted></feature>
            <threshold>-0.0690770596265793</threshold>
            <left_val>0.5714383721351624</left_val>
            <right_node>1</right_node></_>
          <_>
            <feature>
              <rects>
                <_>
                  2 7 19 16 -1.</_>
                <_>
                  2 11 19 8 2.</_></rects>
              <tilted>0</tilted></feature>
            <threshold>-0.2035858035087585</threshold>
            <left_val>0.4335930943489075</left_val>
            <right_val>-0.3354994952678680</right_val></_></_>
        <_>
          <_>
            <feature>
              <rects>
                <_>
                  10 21 3 2 -1.</_>
                <_>
                  11 21 1 2 3.</_></rects>
              <tilted>0</tilted></feature>
            <threshold>3.1366120674647391e-004</threshold>
            <left_node>1</left_node>
            <right_val>-0.5567700862884522</right_val></_>
          <_>
            <feature>
              <rects>
                <_>
                  10 21 3 2 -1.</_>
                <_>
                  11 21 1 2 3.</_></rects>
              <tilted>0</tilted></feature>
            <threshold>-5.2838341798633337e-004</threshold>
            <left_val>-0.4475615918636322</left_val>
            <right_val>0.4028489887714386</right_val></_></_>
        <_>
          <_>
            <feature>
              <rects>
                <_>
                  18 20 6 4 -1.</_>
                <_>
                  21 20 3 4 2.</_></rects>
              <tilted>0</tilted></feature>
            <threshold>7.9299323260784149e-003</threshold>
            <left_node>1</left_node>
            <right_val>0.3498851060867310</right_val></_>
          <_>
            <feature>
              <rects>
                <_>
                  3 4 19 15 -1.</_>
                <_>
                  3 9 19 5 3.</_></rects>
              <tilted>0</tilted></feature>
            <threshold>-0.3321317136287689</threshold>
            <left_val>0.6018776893615723</left_val>
            <right_val>-0.2378638982772827</right_val></_></_>
        <_>
          <_>
            <feature>
              <rects>
                <_>
                  0 23 2 1 -1.</_>
                <_>
                  1 23 1 1 2.</_></rects>
              <tilted>0</tilted></feature>
            <threshold>3.9301809738390148e-004</threshold>
            <left_node>1</left_node>
            <right_val>-0.5969324707984924</right_val></_>
          <_>
            <feature>
              <rects>
                <_>
                  0 23 3 1 -1.</_>
                <_>
                  1 23 1 1 3.</_></rects>
              <tilted>0</tilted></feature>
            <threshold>-2.1760330128017813e-004</threshold>
            <left_val>-0.3685032129287720</left_val>
            <right_val>0.2532925903797150</right_val></_></_>
        <_>
          <_>
            <feature>
              <rects>
                <_>
                  0 19 4 4 -1.</_>
                <_>
                  2 19 2 4 2.</_></rects>
              <tilted>0</tilted></feature>
            <threshold>-3.7991011049598455e-003</threshold>
            <left_node>1</left_node>
            <right_val>-0.1885644048452377</right_val></_>
          <_>
            <feature>
              <rects>
                <_>
                  11 10 4 8 -1.</_>
                <_>
                  11 10 4 4 2.</_></rects>
              <tilted>1</tilted></feature>
            <threshold>0.0127955302596092</threshold>
            <left_val>-0.3020693957805634</left_val>
            <right_val>0.5463535189628601</right_val></_></_>
        <_>
          <_>
            <feature>
              <rects>
                <_>
                  22 21 2 2 -1.</_>
                <_>
                  23 21 1 2 2.</_></rects>
              <tilted>0</tilted></feature>
            <threshold>-7.9331669257953763e-004</threshold>
            <left_val>-0.6717820763587952</left_val>
            <right_node>1</right_node></_>
          <_>
            <feature>
              <rects>
                <_>
                  18 0 6 20 -1.</_>
                <_>
                  18 0 3 10 2.</_>
                <_>
                  21 10 3 10 2.</_></rects>
              <tilted>0</tilted></feature>
            <threshold>0.0153334196656942</threshold>
            <left_val>-0.1330592036247253</left_val>
            <right_val>0.3118402063846588</right_val></_></_>
        <_>
          <_>
            <feature>
              <rects>
                <_>
                  9 9 6 1 -1.</_>
                <_>
                  11 9 2 1 3.</_></rects>
              <tilted>0</tilted></feature>
            <threshold>-2.8845889028161764e-003</threshold>
            <left_val>-0.5189982056617737</left_val>
            <right_node>1</right_node></_>
          <_>
            <feature>
              <rects>
                <_>
                  6 23 2 1 -1.</_>
                <_>
                  7 23 1 1 2.</_></rects>
              <tilted>0</tilted></feature>
            <threshold>4.5137939741834998e-004</threshold>
            <left_val>0.1266707032918930</left_val>
            <right_val>-0.5712916851043701</right_val></_></_>
        <_>
          <_>
            <feature>
              <rects>
                <_>
                  5 22 3 2 -1.</_>
                <_>
                  6 22 1 2 3.</_></rects>
              <tilted>0</tilted></feature>
            <threshold>5.1493238424882293e-004</threshold>
            <left_node>1</left_node>
            <right_val>-0.4700134098529816</right_val></_>
          <_>
            <feature>
              <rects>
                <_>
                  0 13 2 9 -1.</_>
                <_>
                  1 13 1 9 2.</_></rects>
              <tilted>0</tilted></feature>
            <threshold>-1.4454820193350315e-003</threshold>
            <left_val>0.3166374862194061</left_val>
            <right_val>-0.0684605091810226</right_val></_></_>
        <_>
          <_>
            <feature>
              <rects>
                <_>
                  13 5 4 4 -1.</_>
                <_>
                  13 5 2 2 2.</_>
                <_>
                  15 7 2 2 2.</_></rects>
              <tilted>0</tilted></feature>
            <threshold>-5.9679229743778706e-003</threshold>
            <left_val>-0.5769355893135071</left_val>
            <right_node>1</right_node></_>
          <_>
            <feature>
              <rects>
                <_>
                  23 22 1 2 -1.</_>
                <_>
                  23 23 1 1 2.</_></rects>
              <tilted>0</tilted></feature>
            <threshold>-5.2345491712912917e-004</threshold>
            <left_val>-0.3845781981945038</left_val>
            <right_val>0.1377450972795487</right_val></_></_>
        <_>
          <_>
            <feature>
              <rects>
                <_>
                  4 5 16 12 -1.</_>
                <_>
                  4 8 16 6 2.</_></rects>
              <tilted>0</tilted></feature>
            <threshold>0.0963055267930031</threshold>
            <left_node>1</left_node>
            <right_val>0.3361589908599854</right_val></_>
          <_>
            <feature>
              <rects>
                <_>
                  15 3 6 4 -1.</_>
                <_>
                  18 3 3 4 2.</_></rects>
              <tilted>0</tilted></feature>
            <threshold>-5.3590941242873669e-003</threshold>
            <left_val>0.1474996954202652</left_val>
            <right_val>-0.2577894032001495</right_val></_></_>
        <_>
          <_>
            <feature>
              <rects>
                <_>
                  18 9 6 12 -1.</_>
                <_>
                  20 9 2 12 3.</_></rects>
              <tilted>0</tilted></feature>
            <threshold>-5.4329941049218178e-003</threshold>
            <left_val>0.1842056959867477</left_val>
            <right_node>1</right_node></_>
          <_>
            <feature>
              <rects>
                <_>
                  18 11 6 2 -1.</_>
                <_>
                  20 11 2 2 3.</_></rects>
              <tilted>0</tilted></feature>
            <threshold>2.0442530512809753e-003</threshold>
            <left_val>-0.3885574042797089</left_val>
            <right_val>0.0623844489455223</right_val></_></_>
        <_>
          <_>
            <feature>
              <rects>
                <_>
                  14 6 3 18 -1.</_>
                <_>
                  15 6 1 18 3.</_></rects>
              <tilted>0</tilted></feature>
            <threshold>0.0105351498350501</threshold>
            <left_node>1</left_node>
            <right_val>-0.6066256165504456</right_val></_>
          <_>
            <feature>
              <rects>
                <_>
                  7 1 9 1 -1.</_>
                <_>
                  10 1 3 1 3.</_></rects>
              <tilted>0</tilted></feature>
            <threshold>-6.7710839211940765e-003</threshold>
            <left_val>-0.4934084117412567</left_val>
            <right_val>0.1019712015986443</right_val></_></_>
        <_>
          <_>
            <feature>
              <rects>
                <_>
                  10 23 3 1 -1.</_>
                <_>
                  11 23 1 1 3.</_></rects>
              <tilted>0</tilted></feature>
            <threshold>1.3549899449571967e-004</threshold>
            <left_node>1</left_node>
            <right_val>-0.3169676065444946</right_val></_>
          <_>
            <feature>
              <rects>
                <_>
                  23 15 1 4 -1.</_>
                <_>
                  23 17 1 2 2.</_></rects>
              <tilted>0</tilted></feature>
            <threshold>-3.4978638868778944e-003</threshold>
            <left_val>-0.4993286132812500</left_val>
            <right_val>0.1515931040048599</right_val></_></_>
        <_>
          <_>
            <feature>
              <rects>
                <_>
                  15 20 3 1 -1.</_>
                <_>
                  16 20 1 1 3.</_></rects>
              <tilted>0</tilted></feature>
            <threshold>1.5383410209324211e-004</threshold>
            <left_node>1</left_node>
            <right_val>-0.2909482121467590</right_val></_>
          <_>
            <feature>
              <rects>
                <_>
                  13 20 4 1 -1.</_>
                <_>
                  14 20 2 1 2.</_></rects>
              <tilted>0</tilted></feature>
            <threshold>6.0524220316438004e-005</threshold>
            <left_val>0.2773688137531281</left_val>
            <right_val>-0.1701086014509201</right_val></_></_>
        <_>
          <_>
            <feature>
              <rects>
                <_>
                  6 19 13 4 -1.</_>
                <_>
                  6 21 13 2 2.</_></rects>
              <tilted>0</tilted></feature>
            <threshold>-0.0260840896517038</threshold>
            <left_val>0.4534108936786652</left_val>
            <right_node>1</right_node></_>
          <_>
            <feature>
              <rects>
                <_>
                  6 12 14 12 -1.</_>
                <_>
                  6 16 14 4 3.</_></rects>
              <tilted>0</tilted></feature>
            <threshold>-0.1209675967693329</threshold>
            <left_val>0.2141368985176086</left_val>
            <right_val>-0.2042064964771271</right_val></_></_>
        <_>
          <_>
            <feature>
              <rects>
                <_>
                  0 20 3 4 -1.</_>
                <_>
                  0 22 3 2 2.</_></rects>
              <tilted>0</tilted></feature>
            <threshold>-0.0107239596545696</threshold>
            <left_val>-0.7350941896438599</left_val>
            <right_node>1</right_node></_>
          <_>
            <feature>
              <rects>
                <_>
                  21 13 2 4 -1.</_>
                <_>
                  21 15 2 2 2.</_></rects>
              <tilted>0</tilted></feature>
            <threshold>-9.3066962435841560e-003</threshold>
            <left_val>-0.6322641968727112</left_val>
            <right_val>0.0950641110539436</right_val></_></_>
        <_>
          <_>
            <feature>
              <rects>
                <_>
                  6 15 14 3 -1.</_>
                <_>
                  6 16 14 1 3.</_></rects>
              <tilted>0</tilted></feature>
            <threshold>-9.3498444184660912e-003</threshold>
            <left_val>0.2828809916973114</left_val>
            <right_node>1</right_node></_>
          <_>
            <feature>
              <rects>
                <_>
                  18 23 3 1 -1.</_>
                <_>
                  19 23 1 1 3.</_></rects>
              <tilted>0</tilted></feature>
            <threshold>1.4603730232920498e-004</threshold>
            <left_val>-2.4798230733722448e-003</left_val>
            <right_val>-0.4718633890151978</right_val></_></_>
        <_>
          <_>
            <feature>
              <rects>
                <_>
                  3 22 15 2 -1.</_>
                <_>
                  8 22 5 2 3.</_></rects>
              <tilted>0</tilted></feature>
            <threshold>-2.2111479192972183e-003</threshold>
            <left_node>1</left_node>
            <right_val>-0.1439407020807266</right_val></_>
          <_>
            <feature>
              <rects>
                <_>
                  18 23 4 1 -1.</_>
                <_>
                  19 23 2 1 2.</_></rects>
              <tilted>0</tilted></feature>
            <threshold>-4.7991069732233882e-004</threshold>
            <left_val>-0.3092784881591797</left_val>
            <right_val>0.3403008878231049</right_val></_></_>
        <_>
          <_>
            <feature>
              <rects>
                <_>
                  23 16 1 6 -1.</_>
                <_>
                  23 18 1 2 3.</_></rects>
              <tilted>0</tilted></feature>
            <threshold>5.3010089322924614e-003</threshold>
            <left_node>1</left_node>
            <right_val>-0.5068392753601074</right_val></_>
          <_>
            <feature>
              <rects>
                <_>
                  6 8 4 2 -1.</_>
                <_>
                  7 8 2 2 2.</_></rects>
              <tilted>0</tilted></feature>
            <threshold>-4.6094311401247978e-003</threshold>
            <left_val>-0.7016763091087341</left_val>
            <right_val>0.1038500964641571</right_val></_></_>
        <_>
          <_>
            <feature>
              <rects>
                <_>
                  8 8 2 1 -1.</_>
                <_>
                  9 8 1 1 2.</_></rects>
              <tilted>0</tilted></feature>
            <threshold>-4.5011570909991860e-004</threshold>
            <left_val>-0.3630672097206116</left_val>
            <right_node>1</right_node></_>
          <_>
            <feature>
              <rects>
                <_>
                  8 9 6 15 -1.</_>
                <_>
                  10 14 2 5 9.</_></rects>
              <tilted>0</tilted></feature>
            <threshold>0.0428179092705250</threshold>
            <left_val>-0.0339495800435543</left_val>
            <right_val>0.3570880889892578</right_val></_></_>
        <_>
          <_>
            <feature>
              <rects>
                <_>
                  0 2 10 18 -1.</_>
                <_>
                  0 2 5 9 2.</_>
                <_>
                  5 11 5 9 2.</_></rects>
              <tilted>0</tilted></feature>
            <threshold>-0.0227067191153765</threshold>
            <left_node>1</left_node>
            <right_val>-0.1656059026718140</right_val></_>
          <_>
            <feature>
              <rects>
                <_>
                  0 3 6 21 -1.</_>
                <_>
                  2 10 2 7 9.</_></rects>
